tree
version=v4
num_class=1
num_tree_per_iteration=1
label_index=0
max_feature_idx=69
objective=binary sigmoid:1
feature_names=agecalc_adm height_cm_adm weight_kg_adm muac_mm_adm hr_bpm_adm rr_brpm_app_adm sysbp_mmhg_adm diasbp_mmhg_adm temp_c_adm spo2site1_pc_oxi_adm spo2site2_pc_oxi_adm momagefirstpreg_adm householdsize_adm alivechildren_adm deadchildren_adm hematocrit_gpdl_adm lactate_mmolpl_adm glucose_mmolpl_adm sex_adm spo2onoxy_adm respdistress_adm caprefill_adm bcseye_adm bcsmotor_adm bcsverbal_adm bcgscar_adm vaccmeasles_adm vaccpneumoc_adm vaccdpt_adm priorweekabx_adm priorweekantimal_adm symptoms_adm_rash symptoms_adm_cough symptoms_adm_cough_chronic symptoms_adm_diarrhea symptoms_adm_diarrhea_chronic symptoms_adm_fever symptoms_adm_fever_chronic symptoms_adm_vomiting symptoms_adm_sleepy symptoms_adm_edemafeet symptoms_adm_urinecolor symptoms_adm_oliguria symptoms_adm_bloodstool symptoms_adm_seizures symptoms_adm_jaundice comorbidity_adm_airway comorbidity_adm_cardiac comorbidity_adm_sicklecell comorbidity_adm_tuberculosis comorbidity_adm_disability priorhosp_adm prioryearwheeze_adm prioryearcough_adm diarrheaoften_adm tbcontact_adm feedingstatus_adm birthdetail_adm_premature travelmethod_adm traveldist_adm badhealthduration_adm waterpure_adm cookloc_adm lightfuel_adm tobacco_adm bednet_adm hctpretransfusion_adm hivstatus_adm malariastatuspos_adm SI
feature_infos=[5.9000000000000004:61.799999999999997] [56:122] [2.6099999999999999:22] [75:190] [42:214] [17:116] [58:159] [15:103] [33.600000000000001:40.600000000000001] [57:100] [57:99] [12:36] [2:19] [0:10] [0:7] [6:82] [0.20000000000000001:18.899999999999999] [0:24.199999999999999] none none none none none none none none none none none none none none none none none none none none none none none none none none none none none none none none none none none none none none none none none none none none none none none none none none none [0.33600000000000002:2.6164383999999998]
tree_sizes=3241 3299 3313 3323 3325 3321 3312 3300 3337 3317

Tree=0
num_leaves=31
num_cat=0
split_feature=0 1 7 69 17 4 15 16 9 0 3 7 15 1 4 7 0 0 3 6 2 17 8 69 6 7 15 3 7 9
split_gain=27.0323 26.8563 17.0968 31.2032 15.6926 18.4185 12.79 10.5933 11.2391 21.9866 10.4422 15.6781 8.17939 7.96679 30.6691 5.95433 11.1404 3.93893 3.15106 7.52584 2.69474 2.68147 2.28586 2.53875 2.16771 11.6399 22.523 3.93099 2.13977 2.56773
threshold=6.5500000000000007 67.850000000000009 36.500000000000007 1.6650641000000002 12.15 138.50000000000003 52.500000000000007 2.3500000000000001 82.500000000000014 20.150000000000002 117.50000000000001 55.500000000000007 11.500000000000002 88.850000000000009 162.50000000000003 67.500000000000014 15.750000000000002 16.150000000000002 154.50000000000003 98.500000000000014 6.705000000000001 6.1500000000000012 36.250000000000007 1.8763889000000002 93.500000000000014 59.500000000000007 33.500000000000007 159.50000000000003 41.500000000000007 97.500000000000014
decision_type=2 2 2 2 2 2 2 2 2 2 2 2 2 2 2 2 2 2 2 2 2 2 2 2 2 2 2 2 2 2
left_child=1 -1 3 17 6 -6 7 12 9 21 11 -10 -4 15 18 20 -17 -2 -15 -20 -12 -9 -22 -24 25 27 -27 28 29 -14
right_child=2 -3 4 -5 5 -7 -8 8 10 -11 13 -13 24 14 -16 16 -18 -19 19 -21 22 -23 23 -25 -26 26 -28 -29 -30 -31
leaf_value=-2.5246456087079405 -2.9901552957053594 -3.240814357934739 -2.899006545803767 -2.4695557049212642 -2.5246456087079405 -3.1088885357087497 -2.8491595732013333 -3.240814357934739 -3.1648570663500784 -2.4888371712466011 -3.0551409785055696 -2.6392326085842286 -3.2408143579347386 -3.2162399400691135 -2.6331560252574557 -2.7394962334759798 -3.240814357934739 -3.240814357934739 -3.240814357934739 -2.8827299833213398 -3.0933678507409863 -2.9901552957053594 -3.240814357934739 -3.1015593233628613 -3.2253654172734523 -2.5869211521189666 -3.240814357934739 -3.0020914415258062 -3.240814357934739 -2.9901552957053594
leaf_weight=1.3963189348578446 1.1968448013067243 0.83779136091470707 0.87768618762493034 1.0372654944658277 0.83779136091470663 1.5160034149885175 1.2766344547271717 0.91758101433515482 1.3165292814373999 0.79789653420448292 1.0771603211760616 0.99737066775560368 0.83779136091470785 4.0692723244428626 1.3165292814373968 0.79789653420448192 0.99737066775560379 1.3165292814373968 1.2367396280169489 1.117055147886276 1.3564241081476236 0.79789653420448303 14.800980709493162 1.4362137615680683 25.891742534935474 0.91758101433515493 1.2367396280169485 0.83779136091470796 11.44981526583433 0.79789653420448303
leaf_count=35 30 21 22 26 21 38 32 23 33 20 27 25 21 102 33 20 25 33 31 28 34 20 371 36 649 23 31 21 287 20
internal_value=-3.13647 -2.79321 -3.1457 -2.93101 -3.15529 -2.90094 -3.16305 -3.16833 -3.12578 -2.92252 -3.14252 -2.93829 -3.20114 -3.15927 -3.07285 -3.19195 -3.01801 -3.12145 -3.16297 -3.07088 -3.20868 -3.12423 -3.21808 -3.2285 -3.20746 -3.17862 -2.9623 -3.21209 -3.22553 -3.11854
internal_weight=0 2.23411 83.061 3.55064 79.5104 2.35379 77.1566 75.88 33.0329 2.51337 30.5195 2.3139 42.847 28.2056 7.7396 20.466 1.79527 2.51337 6.42307 2.35379 18.6708 1.71548 17.5936 16.2372 41.9694 16.0776 2.15432 13.9233 13.0855 1.63569
internal_count=2138 56 2082 89 1993 59 1934 1902 828 63 765 58 1074 707 194 513 45 63 161 59 468 43 441 407 1052 403 54 349 328 41
is_linear=0
shrinkage=1


Tree=1
num_leaves=31
num_cat=0
split_feature=0 0 2 6 0 5 1 17 16 2 16 7 0 13 0 0 2 2 9 6 1 7 7 1 69 5 0 15 11 6
split_gain=16.3898 9.77583 19.3737 14.2087 11.0922 10.6717 14.8423 25.9694 9.57164 9.59726 9.01686 8.65913 8.62266 5.62076 8.55145 8.25652 4.59084 4.14396 5.91838 8.97208 6.0804 3.07951 3.04479 3.04354 8.17366 4.58783 7.08274 2.64476 2.48642 2.41226
threshold=6.1500000000000012 10.550000000000002 7.1200000000000001 93.500000000000014 13.65 47.500000000000007 89.90000000000002 7.3500000000000005 4.9500000000000011 9.9250000000000025 2.3500000000000001 60.500000000000007 6.5500000000000007 2.5000000000000004 13.850000000000003 21.950000000000003 11.850000000000003 8.6150000000000002 97.500000000000014 105.50000000000001 78.65000000000002 36.500000000000007 63.500000000000007 91.550000000000011 1.7217465000000003 32.500000000000007 33.550000000000004 32.500000000000007 21.500000000000004 89.500000000000014
decision_type=2 2 2 2 2 2 2 2 2 2 2 2 2 2 2 2 2 2 2 2 2 2 2 2 2 2 2 2 2 2
left_child=-1 12 3 4 -3 17 8 16 13 -10 -5 -12 -2 14 -7 -16 -8 18 -4 20 29 -19 -18 -23 25 26 -25 -28 -15 -20
right_child=1 2 5 10 -6 6 7 -9 9 -11 11 -13 -14 28 15 -17 22 21 19 -21 -22 23 -24 24 -26 -27 27 -29 -30 -31
leaf_value=0.40527903106431556 0.12145706786542837 0.12244187243906657 -0.10426513586544239 -0.1040459811543198 0.51328107953728919 0.27353647889727623 0.24607086344185125 0.54393445039499988 0.45298382499110024 -0.0013359201952926377 -0.0061027732141047094 0.41268684161033931 -0.088416304619212086 -0.10434883825228498 -0.10428406738663337 0.19100050413898828 -0.1049177788740745 0.082413015882776289 0.087006700396446576 0.4085532382669147 0.2826082508077522 -0.083696797931337275 0.12909608413002235 0.25131977305501368 0.30704978839765573 -0.10448298280890322 0.091198037729771281 -0.10448105939864052 0.045838425951247985 -0.10437671178512319
leaf_weight=0.97642579674720664 2.1873830035328892 1.318734880536794 2.0749574564397326 1.9735181890428068 1.6159147210419176 1.323284406214954 0.85444262251257841 1.5389966554939745 0.89525574445724376 0.96741557493805885 1.0123291909694669 0.96375329419970501 18.636200565844774 6.6096779741346836 3.1528861112892628 1.353400222957134 1.5918132774531843 1.5896703302860284 1.0438435301184661 0.77868410572409619 0.77379148080945004 19.393359102308754 0.85444719716906536 1.1222880668938122 0.72657320648431856 5.1624438278377056 1.0210552364587786 2.1349320784211159 1.3229564428329466 1.784451976418495
leaf_count=18 38 31 54 53 35 34 20 32 20 24 24 19 468 171 82 34 38 32 26 18 18 503 20 26 15 130 25 54 30 46
internal_value=0 -0.00674718 0.0123672 0.170985 0.337651 -0.00643686 0.051675 0.204695 0.00427811 0.217024 0.0471475 0.198145 -0.0663705 -0.0245164 0.050033 -0.0155995 0.0465203 -0.0380604 0.0348581 0.100754 0.0342152 -0.0531723 -0.0231798 -0.0604636 -0.016148 -0.0410219 0.0355544 -0.0411731 -0.0793015 -0.0337425
internal_weight=0 85.7785 64.9549 6.88425 2.93465 58.0706 20.4646 4.8397 15.6249 1.86267 3.9496 1.97608 20.8236 13.7622 5.82957 4.50629 3.3007 37.6061 6.45573 4.38077 3.60209 31.1503 2.44626 29.5607 10.1673 9.44072 4.27828 3.15599 7.93263 2.8283
internal_count=2138 2120 1614 162 66 1452 505 110 395 44 96 43 506 351 150 116 78 947 162 108 90 785 58 753 250 235 105 79 201 72
is_linear=0
shrinkage=0.1


Tree=2
num_leaves=31
num_cat=0
split_feature=0 0 2 16 1 1 4 0 17 9 8 0 9 69 0 15 69 0 7 12 17 7 4 15 17 3 4 11 69 11
split_gain=17.5777 8.45533 12.661 9.22251 9.96165 9.07745 15.8768 16.2437 8.44247 15.3267 9.40519 7.29302 7.25121 5.93966 16.546 5.71162 5.16285 5.94316 10.1971 8.01876 3.90266 3.86439 3.75968 4.83969 3.65908 3.34188 6.28413 1.78618 3.31199 1.21998
threshold=6.0500000000000007 10.550000000000002 7.1200000000000001 2.0500000000000003 70.65000000000002 90.90000000000002 163.50000000000003 33.550000000000004 6.6500000000000012 95.500000000000014 38.050000000000004 17.050000000000004 82.500000000000014 1.2017680000000002 7.9500000000000011 13.500000000000002 1.4554013000000003 25.250000000000004 66.500000000000014 3.5000000000000004 6.5500000000000007 44.500000000000007 126.50000000000001 32.500000000000007 11.65 157.50000000000003 157.50000000000003 15.500000000000002 1.6409011500000001 24.500000000000004
decision_type=2 2 2 2 2 2 2 2 2 2 2 2 2 2 2 2 2 2 2 2 2 2 2 2 2 2 2 2 2 2
left_child=-1 13 8 24 -5 12 7 20 10 -10 11 -3 -6 14 -2 -14 17 18 19 -17 -7 -21 23 -9 25 29 -27 28 -15 -4
right_child=1 2 3 4 5 6 -8 22 9 -11 -12 -13 15 27 -16 16 -18 -19 -20 21 -22 -23 -24 -25 -26 26 -28 -29 -30 -31
leaf_value=0.43078843978019682 0.39969376738459766 -0.10610711019556139 -0.082867589354119017 0.3085289092511031 0.17346350632600194 0.15402421021991286 0.3488682248291391 0.17152859711819501 -0.0060010258085116007 0.51843475615225321 0.27137024704875151 0.16905179603793885 0.19785184740920581 -0.10586022156431217 -0.1044530169666603 0.2498329242666987 -0.095284888018162706 -0.10410862909246406 0.40245129467635765 0.14030279271199006 0.42929970762004449 -0.10436387613862182 -0.10518463973193831 -0.10449395211762712 0.16503420505511013 -0.052939245709545737 0.28454062088372312 -0.098044970278566998 0.17389502308303792 0.0014827670578514058
leaf_weight=0.92292840778827567 0.98844344168901743 2.8658514469861966 18.744540553540002 1.2063399739563454 1.7819680683314825 1.1543832719326004 1.964329782873391 1.4437964186072352 0.98767673596739802 1.2787855044007299 1.5824779905378816 1.4509308226406572 0.98772593587637203 1.0348694026470209 1.9069033339619634 1.1273360140621678 10.736199311912058 3.0995191372931004 0.78541168197989453 0.81696918234229121 0.92988422885537136 3.0766893401741982 3.9467608444392681 1.1342694759368894 0.73595629632472892 1.943004243075847 0.77058314904570568 15.419546063989399 0.71596610918641079 1.8873124830424775
leaf_count=11 21 61 504 27 33 25 27 34 19 24 28 30 22 23 49 28 277 84 16 21 16 82 95 29 14 50 19 403 17 49
internal_value=0 -0.00794602 0.00923556 -0.00710576 0.0262808 0.0159584 0.0923337 0.0338005 0.125852 0.289897 0.062827 -0.0136224 -0.0200738 -0.0648352 0.0676578 -0.0367912 -0.0485905 0.00770013 0.0673848 0.0149718 0.276837 -0.0530278 -0.0438342 0.0500872 -0.0545092 -0.0614302 0.0428956 -0.0871767 0.0085396 -0.0751516
internal_weight=0 86.5044 66.4387 58.273 34.1916 32.9852 10.5734 8.60909 8.16572 2.26646 5.89926 4.31678 22.4118 20.0657 2.89535 20.6299 19.6421 8.90593 5.80641 5.02099 2.08427 3.89366 6.52483 2.57807 24.0814 23.3454 2.71359 17.1704 1.75084 20.6319
internal_count=2138 2127 1614 1452 816 789 226 199 162 43 119 91 563 513 70 530 508 231 147 131 41 103 158 63 636 622 69 443 40 553
is_linear=0
shrinkage=0.1


Tree=3
num_leaves=31
num_cat=0
split_feature=0 7 1 17 5 11 17 14 4 12 6 4 17 8 16 2 15 4 8 6 4 17 3 10 4 3 4 7 1 11
split_gain=10.0305 7.59311 13.1844 6.82877 7.33661 6.76105 7.94852 10.4119 9.33384 14.4497 7.00329 4.82683 6.59878 3.95142 4.75054 8.71797 4.87763 4.47171 4.18712 3.88791 4.2016 3.43912 3.12762 6.72298 10.5809 2.73595 2.59417 2.67236 7.31646 1.55101
threshold=6.0500000000000007 36.500000000000007 72.850000000000009 7.6500000000000012 22.500000000000004 18.500000000000004 7.8500000000000005 1.5000000000000002 138.50000000000003 5.5000000000000009 111.50000000000001 101.00000000000001 4.5500000000000007 36.95000000000001 6.7500000000000009 9.9250000000000025 11.500000000000002 173.50000000000003 36.050000000000004 89.500000000000014 144.50000000000003 6.5500000000000007 154.50000000000003 97.500000000000014 145.50000000000003 131.50000000000003 178.50000000000003 65.500000000000014 68.950000000000017 23.500000000000004
decision_type=2 2 2 2 2 2 2 2 2 2 2 2 2 2 2 2 2 2 2 2 2 2 2 2 2 2 2 2 2 2
left_child=-1 2 -2 4 -3 6 -5 8 9 -8 19 12 -6 17 16 -16 -15 18 -13 20 -7 -4 26 24 -24 -14 27 29 -29 -18
right_child=1 3 21 5 11 10 7 -9 -10 -11 -12 13 25 14 15 -17 22 -19 -20 -21 -22 -23 23 -25 -26 -27 -28 28 -30 -31
leaf_value=0.27353216837863753 0.32333298927465293 0.20475684686862819 -0.10595587990327063 0.31230870136260686 0.29932243371612999 0.20567974882674556 0.38008985715228855 0.34279619351407326 -0.065406523402082833 -0.10532224280037511 0.17972333706957316 0.13313068216410881 0.12559310394683995 0.17831752075640198 0.24629005827564168 -0.10642666758264473 -0.083960881029407672 0.16567508469561176 -0.094541362822407327 -0.10526882391445247 -0.10541787455560805 0.10348658614243883 0.40380226393571994 -0.10415037296274646 -0.029634329889900793 -0.10407570579361602 0.066591160528047144 0.21930767088944672 -0.071121223201214362 -0.0076805675395115822
leaf_weight=1.2809689790010441 1.8478547297418106 1.286425108090042 1.7600227147340777 1.4241324681788707 0.98044254817068521 0.96071703359484473 1.4285792671143993 1.110045878216624 4.9287900291383266 1.0745124351233242 1.3863434959203003 0.8416013065725626 0.85784130915999446 1.0524688027799118 1.6907015871256583 1.1967848613858221 19.44159265048803 0.73426659032702346 20.103567361831665 5.6808455027639866 0.79204008355736732 1.4137678183615205 0.97785805352032129 1.7894728574901817 1.328230222687125 1.3119298089295623 1.7276960425078858 1.2230338063091029 2.9830538220703602 3.0890973396599284
leaf_count=11 30 29 37 28 17 21 24 22 115 25 26 23 17 21 31 26 528 17 547 139 19 25 20 50 33 36 36 25 79 81
internal_value=0 -0.00836225 0.110978 -0.0157243 -0.0315888 0.0371542 0.0935908 0.0571256 0.0144571 0.171715 -0.0266161 -0.0365463 0.0840157 -0.0430744 -0.0229895 0.100099 -0.0335634 -0.0768897 -0.0853932 -0.0650978 0.0651002 -0.0126595 -0.0404122 0.0412949 0.154157 -0.0132738 -0.0521685 -0.0598426 0.0133288 -0.0735024
internal_weight=0 86.4237 5.02165 81.4021 62.6161 18.786 9.96606 8.54193 7.43188 2.50309 8.81995 61.3296 3.15021 58.1794 36.5 2.88749 33.6125 21.6794 20.9452 7.4336 1.75276 3.17379 32.56 4.09556 2.30609 2.16977 28.4645 26.7368 4.20609 22.5307
internal_count=2138 2127 92 2035 1616 419 214 186 164 49 205 1587 70 1517 930 57 873 587 570 179 40 62 852 103 53 53 749 713 104 609
is_linear=0
shrinkage=0.1


Tree=4
num_leaves=31
num_cat=0
split_feature=2 0 2 4 15 1 4 0 0 7 69 16 17 2 5 15 17 1 11 17 69 7 3 0 7 11 7 17 12 5
split_gain=8.04152 8.32103 13.532 13.7213 7.93809 7.47763 11.5845 10.7275 9.175 7.17469 6.35956 7.79644 6.03963 5.32055 4.68538 5.22084 4.60655 4.30752 4.0532 5.76507 3.80059 3.75885 3.33124 3.03747 2.97897 2.7949 4.60784 2.62122 2.12475 5.86752
threshold=4.8050000000000006 12.350000000000003 8.6150000000000002 178.50000000000003 46.500000000000007 90.90000000000002 162.50000000000003 33.550000000000004 32.150000000000013 32.500000000000007 1.7217465000000003 3.0500000000000003 11.350000000000003 12.350000000000003 30.500000000000004 23.500000000000004 6.0500000000000007 95.550000000000011 18.500000000000004 11.500000000000002 1.2311740500000001 50.500000000000007 140.50000000000003 13.050000000000002 55.500000000000007 15.500000000000002 53.500000000000007 4.1500000000000012 3.5000000000000004 44.500000000000007
decision_type=2 2 2 2 2 2 2 2 2 2 2 2 2 2 2 2 2 2 2 2 2 2 2 2 2 2 2 2 2 2
left_child=21 18 3 4 10 9 7 8 17 -4 14 16 28 -8 -3 -16 -12 -7 19 20 24 -1 23 -17 -2 26 -22 -9 29 -11
right_child=1 2 5 -5 -6 6 13 27 -10 12 11 -13 -14 -15 15 22 -18 -19 -20 -21 25 -23 -24 -25 -26 -27 -28 -29 -30 -31
leaf_value=0.050581139877783489 -0.020290064476850403 0.15041293995763561 0.22688665060091534 0.42722221697158358 0.31212216968518003 -0.10631634363630078 0.33057641676831651 0.085128429747104842 0.34966871930958221 -0.10392347200773239 0.21221275632862868 0.40749913591214154 0.11501413780635453 0.085715679516827181 0.14676992624877314 0.077279858878393864 -0.10452511881657922 0.16486119673371002 -0.097443904798254363 0.22992993362476907 0.19456321974959012 0.29888884352481737 0.13762529598373235 -0.10527367818052258 0.22312804424936697 -0.091381956456718746 -0.10579376111457672 -0.082147978515548073 -0.092678932581772178 0.093587648042759417
leaf_weight=1.2241456881165498 1.1322390846908104 1.9290659632533813 0.89224554225802677 1.1115387082099903 1.181980788707732 1.2697297353297505 1.5671674273908132 1.0489887595176686 1.3003167957067487 3.7580908350646558 0.93249466829001837 0.96324422769248474 1.8011055625975121 2.04583989828825 1.5481783729046563 1.0797157995402811 0.90461639873683453 1.0874104015529154 12.854397505521773 0.87668558768928129 0.99705610983073567 1.2144611962139604 0.80894294939935196 5.8484387919306755 0.90430698916316021 7.406737944111228 1.0472373254597185 8.7567255124449712 17.612314056605101 2.507740443572402
leaf_count=22 22 36 17 14 19 27 17 27 19 111 17 16 35 30 28 21 25 18 338 13 23 19 16 148 20 204 24 231 518 63
internal_value=0 -0.00993195 0.0103392 0.0880609 0.0632535 -0.0187002 0.0329312 -0.00973691 0.136422 -0.0518811 0.0422642 0.177068 -0.0615671 0.191926 0.00860212 -0.0208598 0.0562471 0.0187849 -0.0581255 -0.0172484 -0.036112 0.174242 -0.0544022 -0.0768237 0.0877972 -0.0628125 0.0406983 -0.0642532 -0.0748865 -0.0248746
internal_weight=0 85.1746 59.9559 16.3082 15.1967 43.6477 17.0762 13.4632 3.65746 26.5715 14.0147 2.80036 25.6793 3.61301 11.2143 9.28528 1.83711 2.35714 25.2187 12.3643 11.4876 2.43861 7.7371 6.92815 2.03655 9.45103 2.04429 9.80571 23.8781 6.26583
internal_count=2138 2097 1453 340 326 1113 369 322 64 744 307 58 727 47 249 213 42 45 644 306 293 41 185 169 42 251 47 258 692 174
is_linear=0
shrinkage=0.1


Tree=5
num_leaves=31
num_cat=0
split_feature=0 0 5 1 17 16 14 0 16 9 17 0 0 15 9 9 5 8 17 15 0 6 1 10 5 69 10 16 4 16
split_gain=6.50228 6.45515 6.42044 7.82829 7.14271 6.776 7.23322 6.22503 6.81863 6.63826 9.33285 4.87165 6.63628 4.85877 4.49231 4.91173 3.61508 9.50207 3.32685 3.25656 2.7497 3.12055 4.72868 6.40879 2.04689 2.02388 4.10655 4.43961 2.07865 3.69294
threshold=6.0500000000000007 10.550000000000002 44.500000000000007 67.350000000000009 1.8500000000000003 2.3500000000000001 1.5000000000000002 18.250000000000004 8.0500000000000025 96.500000000000014 5.2500000000000009 6.5500000000000007 6.3500000000000005 13.500000000000002 93.500000000000014 82.500000000000014 23.500000000000004 36.850000000000001 13.850000000000003 52.500000000000007 16.150000000000002 101.50000000000001 78.550000000000011 92.500000000000014 49.500000000000007 1.1853761000000003 98.500000000000014 2.0500000000000003 158.50000000000003 2.4500000000000006
decision_type=2 2 2 2 2 2 2 2 2 2 2 2 2 2 2 2 2 2 2 2 2 2 2 2 2 2 2 2 2 2
left_child=-1 11 3 -3 -5 13 7 24 9 14 -11 12 -2 -4 15 -9 17 -6 19 25 21 22 23 -15 -7 26 27 -18 -27 -30
right_child=1 2 5 4 16 6 -8 8 -10 10 -12 -13 -14 20 -16 -17 18 -19 -20 -21 -22 -23 -24 -25 -26 28 -28 -29 29 -31
leaf_value=0.19708792047733914 -0.10885855825088996 0.15982341280507525 0.20371334855212342 0.25332526437058683 -0.10546392266112886 0.052338259948254653 0.24787490295733128 0.25527678426206407 -0.10946710161494946 0.28631691392092323 -0.06986502060388157 -0.084416289347270287 0.18866062277786819 0.25940095173497324 0.31847395895351832 0.010399299586706554 -0.10388209533252363 0.3242857158993448 0.15645371642799696 0.14088793565777236 -0.067258345692865332 -0.10451831643793451 0.29852049478589898 -0.064271954789466956 -0.077650730689953096 -0.089070293709147277 -0.10645056037210442 0.16992048862568065 0.080909366481195968 -0.10727020101674867
leaf_weight=1.559625670313834 1.3662725519388943 2.1711256150156251 0.95600621215999027 0.83064492605626483 1.1697212345898145 1.849922221153977 2.2115159835666409 1.6004090197384342 1.352303560823201 1.014976726844907 2.6730806548148394 15.325573222711681 1.6613304726779459 0.82124621607363124 2.0570110846310854 1.6778210345655677 0.88789370097220954 0.91850835643708695 0.74316119775175948 0.80248752236366172 7.8804879412055016 1.3669258393347261 0.7407843954861163 2.3978866282850504 3.5095314718782902 19.548452401533726 2.1737286746501923 1.7782378289848564 2.1276957616209975 2.0453787762671709
leaf_count=11 22 28 17 18 29 38 36 15 25 23 59 468 23 19 23 38 27 14 10 15 218 38 17 62 81 586 51 34 49 44
internal_value=0 -0.00894688 0.00538785 -0.0241119 -0.0362039 0.0377238 0.0785331 0.0547327 0.099938 0.131321 0.0281585 -0.0615169 0.0543985 -0.0139862 0.202634 0.129947 -0.0436738 0.0835616 -0.0524989 -0.0577872 -0.0297443 0.0257537 0.0707223 0.0183016 -0.0327824 -0.0633693 -0.00443646 0.0787368 -0.0753933 -0.0113244
internal_weight=0 85.6601 67.3069 35.197 33.0259 32.1099 17.9466 15.7351 10.3756 9.0233 3.68806 18.3532 3.0276 14.1633 5.33524 3.27823 32.1953 2.08823 30.107 29.3639 13.2073 5.32684 3.95992 3.21913 5.35945 28.5614 4.83986 2.66613 23.7215 4.17307
internal_count=2138 2127 1614 905 877 709 338 302 183 158 82 513 45 371 76 53 859 43 816 806 354 136 98 81 119 791 112 61 679 93
is_linear=0
shrinkage=0.1


Tree=6
num_leaves=31
num_cat=0
split_feature=2 14 17 8 0 69 11 11 6 5 5 0 3 1 69 0 16 3 2 4 7 1 15 15 3 69 8 11 7 7
split_gain=5.06456 8.576 5.7316 10.3696 5.6844 8.12514 5.52657 6.45004 7.80951 6.83522 4.65295 4.61896 4.40057 7.64555 7.173 5.88653 4.29561 7.884 3.68003 3.61842 5.0591 3.33273 3.21967 2.9727 4.08244 2.96498 7.90653 3.24915 5.23829 2.86851
threshold=5.0250000000000012 1.0000000180025095e-35 11.350000000000003 37.45000000000001 12.350000000000003 1.7095883500000002 17.500000000000004 19.500000000000004 113.50000000000001 22.500000000000004 71.500000000000014 22.050000000000004 140.50000000000003 92.950000000000017 1.8313930000000003 21.750000000000004 2.8500000000000001 144.50000000000003 6.892500000000001 158.50000000000003 55.500000000000007 73.450000000000017 46.500000000000007 13.500000000000002 114.50000000000001 1.2259526500000002 37.850000000000001 15.500000000000002 51.500000000000007 64.500000000000014
decision_type=2 2 2 2 2 2 2 2 2 2 2 2 2 2 2 2 2 2 2 2 2 2 2 2 2 2 2 2 2 2
left_child=1 -1 4 11 25 6 18 8 10 -9 16 -4 14 -14 15 -7 23 29 -6 22 -21 -16 -11 -8 -25 26 -2 28 -27 -18
right_child=2 -3 3 -5 5 12 7 9 -10 19 -12 -13 13 -15 21 -17 17 -19 -20 20 -22 -23 -24 24 -26 27 -28 -29 -30 -31
leaf_value=0.20060089061837594 -0.072645551817581797 -0.11339958050945682 0.33006230776804479 -0.067138607072711673 0.071088903745623419 0.11460189640562435 0.15311784862544031 0.23441088572374663 0.30204894468978888 -0.088027096802928029 0.26705110512105462 0.084854174941711741 -0.10498931785293573 0.12326242953834024 0.1369778040331284 0.39104622754757762 -0.10468413242234931 0.27161982403664098 -0.089608490847995964 0.18923969919687678 -0.10578292290952196 -0.057805713423938858 0.10310446174060028 0.16914983363870528 -0.08614668209416107 0.21237428313398454 0.23886022459204548 -0.097400873582646763 -0.10562431834381358 0.12800306626245173
leaf_weight=2.8092568181455126 2.9137241840362575 1.2599047087132929 1.5646791681647294 2.4177361093461514 1.600652778521179 1.7639429047703727 0.76269774138927449 0.87115800753236072 1.1798716485500325 12.105285027995702 0.78377345390617925 1.5091235656291244 3.0099578984081745 2.8637131117284298 1.5684177819639447 1.3673685826361177 1.4476633109152324 1.5693438518792389 12.990652825683354 1.3306881152093404 1.0320558976382015 1.9966436270624397 0.95055214315652925 0.70917904376983631 5.3641189392656088 0.93173601292074026 1.1311136614531276 14.774594385176895 1.1665950976312158 0.83560367114841927
leaf_count=40 72 22 22 44 22 37 12 16 17 363 14 23 81 28 21 16 39 32 385 26 25 42 21 11 165 17 17 464 29 15
internal_value=0 0.103379 -0.0109011 0.087803 -0.0179387 -0.00135041 -0.0217997 0.00349907 0.0570652 -0.0381058 0.0318699 0.209674 0.0694708 0.00629501 0.124885 0.235319 0.0146246 0.0990698 -0.0719801 -0.0535031 0.0603727 0.0278876 -0.0741114 -0.0329668 -0.0563357 -0.0624299 0.0144651 -0.0808634 0.0355787 -0.019528
internal_weight=0 4.06916 82.5126 5.49154 77.0211 56.1033 43.5333 28.942 12.6523 16.2897 11.4724 3.0738 12.57 5.87367 6.69637 3.13131 10.6886 3.85261 14.5913 15.4186 2.36274 3.56506 13.0558 6.836 6.0733 20.9178 4.04484 16.8729 2.09833 2.28327
internal_count=2138 62 2076 89 1987 1388 1163 756 305 451 288 45 225 109 116 53 274 86 407 435 51 63 384 188 176 599 89 510 46 54
is_linear=0
shrinkage=0.1


Tree=7
num_leaves=31
num_cat=0
split_feature=17 2 15 7 4 14 7 5 17 17 15 7 4 0 8 6 7 16 8 15 12 4 6 4 5 3 8 16 0 8
split_gain=4.26997 8.1678 5.5733 5.71859 5.20046 4.3048 4.59538 4.00588 3.91846 3.91602 3.42051 3.42492 3.18071 6.81246 4.14316 2.83757 3.3968 6.24494 3.64954 3.29607 3.88175 4.33705 3.19078 2.86757 2.42046 2.60461 2.68485 3.52756 2.84088 2.27295
threshold=6.0500000000000007 4.6500000000000012 52.500000000000007 56.500000000000007 184.50000000000003 1.5000000000000002 32.500000000000007 22.500000000000004 12.15 8.2500000000000018 11.500000000000002 55.500000000000007 157.50000000000003 14.850000000000003 38.650000000000013 77.500000000000014 63.500000000000007 2.8500000000000001 36.050000000000004 30.500000000000004 5.5000000000000009 158.50000000000003 104.50000000000001 124.50000000000001 44.500000000000007 122.50000000000001 37.750000000000007 4.0500000000000007 33.350000000000001 36.250000000000007
decision_type=2 2 2 2 2 2 2 2 2 2 2 2 2 2 2 2 2 2 2 2 2 2 2 2 2 2 2 2 2 2
left_child=4 -2 3 5 7 6 -3 -1 24 -7 -8 12 29 -14 -15 -9 18 -18 -17 20 -20 23 -19 -22 -5 -26 -27 28 -28 -12
right_child=1 2 -4 8 -6 9 10 15 -10 -11 11 -13 13 14 -16 16 17 22 19 -21 21 -23 -24 -25 25 26 27 -29 -30 -31
leaf_value=0.14608150714563808 0.23356496410779287 0.17563290237783213 0.22177906270321901 -0.10582499344212122 0.15626182722722054 0.037343607090693114 0.1860228919313332 0.070520423830280732 0.091328084789237901 0.28621026947468914 0.10884709345738441 0.1709319167346427 -0.071393639495406766 0.056444408358985176 0.28206547316985731 0.14721893089633273 -0.062338318460932844 0.23089857633447047 -0.072976504662692968 -0.098437425486632479 0.1263714054667559 0.213041847136933 0.021976293836223335 -0.10500568079713533 0.10012625843241117 -0.10517488035908545 -0.10577320137883402 0.17201098386929392 0.10984395277596314 -0.055130780870936258
leaf_weight=1.1608994733542193 1.6477625109255303 1.7067570574581683 1.174252577126025 6.465036233887079 1.4473708681762207 1.3352757990360253 0.99456159584224479 2.0939236152917138 1.9558836482465256 1.200969588011503 0.91177988611162319 1.0602078344672907 2.8742388747632495 2.327839490026236 1.251459816470742 0.78270007669925945 4.6116655506193629 1.4347738958895209 6.2110798135399836 16.986869759857655 0.83932912163436491 1.1976166889071462 1.490345627069473 1.4803901780396698 1.3873116727918375 4.0888952016830427 2.1448723189532761 1.0064657609909771 0.85450822860002507 11.596259534358976
leaf_count=18 15 23 15 194 20 30 14 34 30 11 20 27 81 44 22 18 142 23 174 541 19 15 30 44 23 111 57 12 12 319
internal_value=0 0.0149493 0.00682443 0.000976483 -0.0298071 0.0316204 0.0178284 -0.0368406 -0.042259 0.155188 0.00501291 -0.00397857 -0.0137584 0.0432607 0.13533 -0.04256 -0.0493185 0.0101577 -0.06562 -0.0718557 -0.0254412 0.0584989 0.124453 -0.021288 -0.0586433 -0.0264739 -0.0481712 0.0100143 -0.044345 -0.0431775
internal_weight=0 45.9843 44.3366 43.1623 39.737 25.2593 22.7231 38.2896 17.903 2.53625 21.0163 20.0218 18.9616 6.45354 3.5793 37.1287 35.0348 7.53679 27.498 26.7153 9.72842 3.51734 2.92512 2.31972 15.9471 9.48205 8.09474 4.00585 2.99938 12.508
internal_count=2138 1060 1045 1030 1078 591 550 1058 439 41 527 513 486 147 66 1040 1006 195 811 793 252 78 53 63 409 215 192 81 69 339
is_linear=0
shrinkage=0.1


Tree=8
num_leaves=31
num_cat=0
split_feature=17 2 17 4 16 17 1 6 15 7 3 1 69 0 2 2 7 5 4 2 16 69 11 5 6 12 0 1 16 16
split_gain=3.52506 5.73995 5.06325 5.37558 4.12881 4.41758 4.99778 3.85553 3.81125 4.69645 3.75315 6.57083 7.17993 5.31727 4.36756 5.07931 3.58041 3.30665 3.91788 3.91519 2.9772 4.04111 4.47458 2.65138 4.66669 2.46331 2.3907 2.32598 3.40478 2.24328
threshold=6.0500000000000007 4.6500000000000012 5.2500000000000009 184.50000000000003 2.0500000000000003 5.0500000000000007 88.850000000000009 82.500000000000014 52.500000000000007 56.500000000000007 162.50000000000003 89.90000000000002 1.7217465000000003 33.550000000000004 9.8250000000000011 9.0900000000000016 66.500000000000014 41.500000000000007 138.50000000000003 7.9450000000000012 3.1500000000000008 1.4486277500000002 18.500000000000004 27.500000000000004 77.500000000000014 4.5000000000000009 24.850000000000005 78.450000000000017 1.3500000000000003 1.0500000000000003
decision_type=2 2 2 2 2 2 2 2 2 2 2 2 2 2 2 2 2 2 2 2 2 2 2 2 2 2 2 2 2 2
left_child=2 -2 3 4 7 16 -7 -1 9 10 11 14 13 -13 15 20 23 -11 19 -19 21 22 -3 -6 -25 -21 -22 28 29 -23
right_child=1 8 -4 -5 5 6 -8 -9 -10 17 -12 12 -14 -15 -16 -17 -18 18 -20 25 26 27 -24 24 -26 -27 -28 -29 -30 -31
leaf_value=0.15400530845599691 0.18492147679572615 0.23083587324683089 -0.077119567474899925 0.20497045147866577 0.098986607257669904 0.034170507822639924 0.33981177527179551 -0.081656937909371577 0.17000440930272384 -0.10575471737232459 -0.10927700022526302 0.1892527074122935 0.29179630184829874 -0.055750689642568865 -0.080639204941752904 0.23920052815434661 0.11493013100611338 0.23874177811580949 -0.043707874646978541 0.12676357328654403 -0.1069631859413285 -0.018052365578434235 -0.019282890202630579 0.14480066350766782 -0.077808701206607045 -0.10617344352052756 0.07500365583115004 0.17219720669240313 -0.078642466493311511 0.19194210865522887
leaf_weight=0.75424964167178288 1.8596694916486729 1.9969592727720828 13.643292289227245 1.2021713089197863 1.4139645714312781 1.4104256331920617 0.86195356026291836 8.7244637887924892 1.3663332052528847 5.3085712008178261 1.8647121842950571 1.5716459751129144 1.8909994587302206 2.0299397949129343 4.1692096292972556 1.1296434588730324 2.1468851361423722 1.0991168599575751 8.9342509899288398 0.83403359726071336 2.6898141298443075 1.052422331646085 1.1143977567553518 1.0813738666474799 7.2920555491000414 0.99629197828471661 0.98691380210220803 0.71230282820761193 3.5612102895975113 0.98466279543936241
leaf_count=18 15 34 406 12 26 39 13 301 15 167 35 21 15 59 133 23 34 16 213 18 64 21 32 11 218 25 14 16 102 22
internal_value=0 0.0128117 -0.0281595 -0.00131971 -0.0117901 0.0223135 0.150106 -0.0629046 0.00558568 0.000352376 0.0273611 0.0380262 0.134009 0.0511629 0.00937057 0.0357454 -0.00201909 -0.040155 -0.0108016 0.0895564 0.0181992 0.047981 0.141251 -0.0276721 -0.0490602 -2.98696e-05 -0.0581193 0.00199565 -0.0196601 0.0834523
internal_weight=0 46.1531 38.5308 24.8875 23.6854 14.2067 2.27238 9.47871 44.2934 42.9271 25.7548 23.8901 5.49259 3.60159 18.3975 14.2283 11.9343 17.1723 11.8637 2.92944 13.0987 9.42196 3.11136 9.78739 8.37343 1.83033 3.67673 6.3106 5.5983 2.03709
internal_count=2138 1060 1078 672 660 341 52 319 1045 1030 591 556 95 80 461 328 289 439 272 59 305 227 66 255 229 43 78 161 145 43
is_linear=0
shrinkage=0.1


Tree=9
num_leaves=31
num_cat=0
split_feature=15 0 0 4 5 17 2 69 4 14 5 0 3 4 11 16 17 17 12 1 3 17 16 5 69 13 17 6 8 15
split_gain=3.16364 3.20961 7.20233 5.24607 3.99097 4.8352 4.57047 4.2312 3.86528 3.50505 4.26952 3.62656 4.40054 5.91482 3.70998 3.87835 5.04605 3.29368 3.27835 3.17663 2.99655 2.81666 2.73577 2.1074 1.93184 1.53315 1.87886 4.60977 6.37305 2.92509
threshold=59.000000000000007 6.5500000000000007 10.550000000000002 140.50000000000003 44.500000000000007 1.6000000000000003 5.0250000000000012 1.3298420500000001 128.50000000000003 1.5000000000000002 60.500000000000007 13.15 145.50000000000003 177.50000000000003 17.500000000000004 4.0500000000000007 6.1500000000000012 7.9500000000000011 3.5000000000000004 78.850000000000009 154.50000000000003 16.400000000000002 1.6500000000000001 23.500000000000004 1.3023195500000002 4.5000000000000009 7.6500000000000012 101.50000000000001 36.750000000000007 11.500000000000002
decision_type=2 2 2 2 2 2 2 2 2 2 2 2 2 2 2 2 2 2 2 2 2 2 2 2 2 2 2 2 2 2
left_child=1 3 -3 -1 5 -4 -7 20 -9 11 -11 -10 13 14 17 16 -16 -13 -14 -18 -6 23 -5 24 -8 26 29 28 -28 -25
right_child=-2 2 4 22 7 6 21 8 9 10 -12 12 18 -15 15 -17 19 -19 -20 -21 -22 -23 -24 25 -26 -27 27 -29 -30 -31
leaf_value=0.18811180520513471 0.16827465877337139 -0.081007419603101566 0.19607415922651872 0.080326835341063774 -0.085289610283607362 0.18488248585361777 -0.03646809397072865 0.18958370944659986 -0.07641697175906241 0.034599912983689161 0.27335673868676996 -0.10706185260568507 0.092744046062761598 0.21440206925056815 -0.10502259190378981 0.17455326169430871 -0.026033470033454659 0.12449752004678592 -0.085148985504464897 0.17588879014434161 0.11784630824396901 0.16158937503947957 -0.11376447554807832 0.13221579257223667 0.14059043249626368 -0.10446143544479275 0.3041531477213274 -0.10672846484610972 -0.0096540015166800153 -0.064828607823601406
leaf_weight=2.1388344243168822 1.0304190032184113 12.988240836188195 0.96264323778450744 1.4299577455967667 4.7277700863778582 0.94601282477379101 1.338004164397723 1.6549624223262096 3.4402425736188951 1.8478985298424953 1.2594442516565321 2.5561758223921083 1.3860765490680922 2.2399933524429789 1.9052565712481735 2.5783686339855194 1.2555102836340668 0.80857148766517628 4.1010601483285427 2.0532670430839062 0.85797218233346928 0.68817927315831084 1.4756313413381574 0.78930110856891644 1.142324401065707 4.5066849440336219 0.96229190193116609 1.9011484012007711 1.9763162415474651 16.551182186231017
leaf_count=15 12 466 16 18 132 8 25 34 91 35 15 69 29 15 60 27 34 14 102 35 15 7 23 12 16 156 17 47 50 543
internal_value=0 -0.00803785 -0.0130734 0.0692506 0.000619809 -0.0246206 -0.031518 0.0251584 0.0415002 0.0318638 0.131371 0.0180134 0.0352163 0.06611 0.0363377 0.0742299 0.0246194 -0.0514166 -0.0402124 0.0992697 -0.0540879 -0.038375 -0.0182443 -0.043093 0.0450769 -0.0512876 -0.0404835 0.0146078 0.0931069 -0.0558596
internal_weight=0 82.4693 77.4249 5.04442 64.4367 31.7641 30.8014 32.6726 27.0868 25.4319 3.10734 22.3245 18.8843 13.3971 11.1571 7.7924 5.21403 3.36475 5.48714 3.30878 5.58574 29.8554 2.90559 29.1673 2.48033 26.6869 22.1802 4.83976 2.93861 17.3405
internal_count=2138 2126 2070 56 1604 897 881 707 560 526 50 476 385 254 239 156 129 83 131 69 147 873 41 866 41 825 669 114 67 555
is_linear=0
shrinkage=0.1


end of trees

feature_importances:
agecalc_adm=38
glucose_mmolpl_adm=29
diasbp_mmhg_adm=25
hr_bpm_adm=24
height_cm_adm=19
hematocrit_gpdl_adm=19
lactate_mmolpl_adm=19
weight_kg_adm=18
rr_brpm_app_adm=17
SI=16
muac_mm_adm=14
sysbp_mmhg_adm=14
temp_c_adm=12
momagefirstpreg_adm=12
spo2site1_pc_oxi_adm=8
householdsize_adm=6
deadchildren_adm=5
spo2site2_pc_oxi_adm=3
alivechildren_adm=2

parameters:
[boosting: gbdt]
[objective: binary]
[metric: binary_logloss]
[tree_learner: serial]
[device_type: cpu]
[data_sample_strategy: bagging]
[data: ]
[valid: ]
[num_iterations: 10]
[learning_rate: 0.1]
[num_leaves: 31]
[num_threads: 4]
[seed: 0]
[deterministic: 0]
[force_col_wise: 0]
[force_row_wise: 0]
[histogram_pool_size: -1]
[max_depth: -1]
[min_data_in_leaf: 20]
[min_sum_hessian_in_leaf: 0.001]
[bagging_fraction: 1]
[pos_bagging_fraction: 1]
[neg_bagging_fraction: 1]
[bagging_freq: 0]
[bagging_seed: 3]
[feature_fraction: 1]
[feature_fraction_bynode: 1]
[feature_fraction_seed: 2]
[extra_trees: 0]
[extra_seed: 6]
[early_stopping_round: 0]
[early_stopping_min_delta: 0]
[first_metric_only: 0]
[max_delta_step: 0]
[lambda_l1: 0]
[lambda_l2: 0]
[linear_lambda: 0]
[min_gain_to_split: 0]
[drop_rate: 0.1]
[max_drop: 50]
[skip_drop: 0.5]
[xgboost_dart_mode: 0]
[uniform_drop: 0]
[drop_seed: 4]
[top_rate: 0.2]
[other_rate: 0.1]
[min_data_per_group: 100]
[max_cat_threshold: 32]
[cat_l2: 10]
[cat_smooth: 10]
[max_cat_to_onehot: 4]
[top_k: 20]
[monotone_constraints: ]
[monotone_constraints_method: basic]
[monotone_penalty: 0]
[feature_contri: ]
[forcedsplits_filename: ]
[refit_decay_rate: 0.9]
[cegb_tradeoff: 1]
[cegb_penalty_split: 0]
[cegb_penalty_feature_lazy: ]
[cegb_penalty_feature_coupled: ]
[path_smooth: 0]
[interaction_constraints: ]
[verbosity: 1]
[saved_feature_importance_type: 0]
[use_quantized_grad: 0]
[num_grad_quant_bins: 4]
[quant_train_renew_leaf: 0]
[stochastic_rounding: 1]
[linear_tree: 0]
[max_bin: 255]
[max_bin_by_feature: ]
[min_data_in_bin: 3]
[bin_construct_sample_cnt: 200000]
[data_random_seed: 1]
[is_enable_sparse: 1]
[enable_bundle: 1]
[use_missing: 1]
[zero_as_missing: 0]
[feature_pre_filter: 1]
[pre_partition: 0]
[two_round: 0]
[header: 0]
[label_column: ]
[weight_column: ]
[group_column: ]
[ignore_column: ]
[categorical_feature: ]
[forcedbins_filename: ]
[precise_float_parser: 0]
[parser_config_file: ]
[objective_seed: 5]
[num_class: 1]
[is_unbalance: 0]
[scale_pos_weight: 1]
[sigmoid: 1]
[boost_from_average: 1]
[reg_sqrt: 0]
[alpha: 0.9]
[fair_c: 1]
[poisson_max_delta_step: 0.7]
[tweedie_variance_power: 1.5]
[lambdarank_truncation_level: 30]
[lambdarank_norm: 1]
[label_gain: ]
[lambdarank_position_bias_regularization: 0]
[eval_at: ]
[multi_error_top_k: 1]
[auc_mu_weights: ]
[num_machines: 1]
[local_listen_port: 12400]
[time_out: 120]
[machine_list_filename: ]
[machines: ]
[gpu_platform_id: -1]
[gpu_device_id: -1]
[gpu_use_dp: 0]
[num_gpu: 1]

end of parameters
